<?xml version="1.0"?>
<opencv_storage>
<my_svm type_id="opencv-ml-svm">
  <svm_type>C_SVC</svm_type>
  <kernel><type>LINEAR</type></kernel>
  <C>1.</C>
  <term_criteria><epsilon>1.1920928955078125e-007</epsilon>
    <iterations>1000</iterations></term_criteria>
  <var_all>320</var_all>
  <var_count>320</var_count>
  <class_count>2</class_count>
  <class_labels type_id="opencv-matrix">
    <rows>1</rows>
    <cols>2</cols>
    <dt>i</dt>
    <data>
      0 1</data></class_labels>
  <sv_total>1</sv_total>
  <support_vectors>
    <_>
      8.81583571e-001 6.24966741e-001 6.37800395e-002 2.49309149e-002
      -1.73537210e-001 -2.08336651e-001 1.80148631e-002 5.53038776e-001
      3.68952602e-001 2.72310823e-001 -2.86165369e-003 9.85466465e-002
      -7.63091072e-002 5.07498026e-001 -2.80447543e-001 1.14735067e-001
      -2.26018697e-001 4.50993717e-001 -2.99652636e-001 -1.46358058e-001
      3.28087777e-001 5.32316923e-001 4.51044627e-002 -1.61154106e-001
      -5.57712428e-002 -3.07439063e-002 1.68289796e-001 1.52355075e-001
      1.45400897e-001 -2.05980957e-001 -2.68374830e-001 1.92804828e-001
      1.81287706e-001 1.76636994e-001 -1.01560019e-001 -1.55384159e-002
      -7.72941634e-002 1.74609810e-001 -1.92054018e-001 -5.01359999e-001
      9.07450542e-002 3.20732623e-001 -2.26873145e-001 2.41766155e-001
      -1.92534432e-001 2.31925949e-001 3.87471691e-002 3.02301735e-001
      -5.13428412e-002 1.09357528e-001 -1.71725377e-001 -4.15078327e-002
      -1.08616516e-001 1.13369226e-001 -2.10100874e-001 1.50330320e-001
      -9.97233018e-002 1.67072460e-001 4.07332107e-002 -3.09493750e-001
      -9.91050303e-002 -4.96828444e-002 1.60374083e-002 1.29787147e-001
      -1.74957693e-001 -2.66504854e-001 -6.04139417e-002 6.92398474e-002
      8.75492841e-002 9.01734382e-002 -6.04301039e-003 6.16187677e-002
      1.46956753e-003 6.17113411e-002 -1.82399541e-001 1.15274221e-001
      8.92700776e-002 -2.04790346e-002 1.91492781e-001 1.22232318e-001
      -2.92744264e-002 1.01628773e-001 7.69327627e-003 -7.41013214e-002
      -2.17840210e-001 1.91862753e-003 -5.48405852e-003 -4.41478416e-002
      -3.14304829e-001 5.47087081e-002 -3.84337246e-001 7.87167624e-003
      4.01813388e-001 -2.45239764e-001 -3.73561352e-001 -1.35652989e-001
      -6.04481762e-003 -1.11152045e-001 3.98239866e-002 -1.44768983e-001
      -3.60310152e-002 1.14399202e-001 -9.35640559e-002 -2.50329435e-001
      1.43187642e-001 1.54242024e-001 3.43345582e-001 3.17191668e-002
      -1.96551740e-001 1.27703801e-001 2.05630645e-001 7.79151842e-002
      -2.46513188e-001 -2.40197390e-001 2.59944767e-001 -3.03871453e-001
      1.18792746e-002 -3.92456166e-002 1.53880075e-001 -2.09075078e-001
      -1.40841708e-001 -1.69573799e-001 1.41069070e-001 -2.53511202e-002
      3.60184342e-001 -2.53982414e-002 1.25780568e-001 -1.01511620e-001
      3.36544365e-002 -9.56724957e-002 3.28787677e-002 -1.19031720e-001
      2.33474523e-001 -8.78352597e-002 -3.34779501e-001 -1.47336110e-001
      3.08438540e-002 -1.63021430e-001 -3.79369073e-002 4.85515326e-001
      2.44085312e-001 8.65315944e-002 -1.06360532e-001 -1.38275012e-001
      -1.26272179e-002 2.64840829e-003 2.41983626e-002 2.02258572e-001
      -1.23215385e-001 6.46013990e-002 -8.57806429e-002 -1.58171684e-001
      1.93610728e-001 1.72671117e-002 6.02551699e-002 -7.27803633e-002
      8.36953670e-002 -5.38845539e-001 -6.68782592e-002 1.99910313e-001
      1.47378251e-001 2.89924406e-002 2.37984002e-001 -2.01721445e-001
      1.89200595e-001 -2.64298450e-002 2.61831254e-001 2.69198596e-001
      2.95108825e-001 -1.03704028e-001 3.34552191e-002 2.10007653e-001
      -7.62461126e-002 5.51059395e-002 -2.09613249e-001 1.00163676e-001
      -2.16293812e-001 -5.75904325e-002 8.48046839e-002 -7.59411696e-003
      -1.99747175e-001 -4.97535206e-002 2.02659935e-001 1.24634497e-001
      -1.39524296e-001 1.90261468e-001 1.39076084e-001 1.08856812e-001
      -3.19237202e-001 -3.23598534e-002 1.56837881e-001 2.67115347e-002
      -1.50188193e-001 1.70807838e-001 2.80122310e-002 1.42760664e-001
      -3.30608487e-002 1.01359300e-001 2.53518462e-001 -6.37935996e-002
      -2.09864721e-001 -2.88879752e-001 1.70149371e-001 7.34201595e-002
      -1.66756939e-002 2.03880891e-002 -6.79522008e-002 -1.63813561e-001
      4.65055257e-002 3.12086523e-001 3.32788266e-002 -1.67877719e-001
      -1.11923655e-002 1.02064833e-001 9.41560492e-002 -9.24078599e-002
      -2.11066797e-001 -8.65549073e-002 -3.64418104e-002
      -5.73824607e-002 6.88005760e-002 1.62165090e-001 4.07027602e-002
      -3.77915323e-001 1.84874937e-001 -2.32338905e-002 2.56407827e-001
      6.01229966e-002 -4.80682313e-001 -1.07480600e-001 -1.85595267e-002
      -2.99712867e-001 2.24383354e-001 2.78518021e-001 2.11439580e-001
      1.55190155e-001 -2.37953719e-002 7.23317116e-002 2.90526841e-002
      -1.36908768e-002 -4.26280648e-002 -1.54340774e-001 7.01323748e-002
      1.91144481e-001 9.32858214e-002 1.99675083e-001 2.67538708e-002
      8.34412221e-003 -2.61265427e-001 -9.79558602e-002 -5.39588146e-002
      2.70930976e-001 -2.32648291e-002 1.26363009e-001 -7.19392719e-003
      5.63664213e-002 2.54159868e-001 -1.47421241e-001 1.99943986e-002
      -5.09127192e-002 4.20201607e-002 2.91908503e-001 -8.13755095e-002
      -1.71664998e-001 5.15757740e-001 2.92974710e-001 1.06820196e-001
      8.03881735e-002 -3.82660031e-001 2.11189315e-001 3.79640162e-001
      4.19205397e-001 -1.70227382e-002 -5.55310965e-001 -1.94634408e-001
      5.43818139e-002 3.48178506e-001 -2.93140262e-002 -7.77059197e-002
      1.55543834e-001 -8.51590037e-002 5.07760644e-002 -3.03446446e-002
      2.03470424e-001 -2.41184533e-002 1.22862794e-001 6.75027370e-002
      -7.47353658e-002 -8.09456781e-002 3.40636998e-001 -3.62537354e-001
      2.57468343e-001 -2.36680999e-001 8.66958052e-002 6.58613890e-002
      -7.05752969e-002 -1.24890395e-001 2.04476744e-001 4.25148547e-001
      4.14397568e-003 -2.31606349e-001 -2.86642641e-001 7.86931079e-004
      -3.18955421e-001 6.50452673e-002 1.39463261e-001 2.36557126e-001
      1.54702172e-001 -2.40022063e-001 6.13843314e-002 -2.15100236e-002
      -3.34944755e-001 -6.61652759e-002 -1.93219572e-001 1.89313307e-001
      2.14890510e-001 3.26545686e-001 3.61609638e-001 1.81357726e-001
      2.16251642e-001</_></support_vectors>
  <decision_functions>
    <_>
      <sv_count>1</sv_count>
      <rho>1.7518637125114445e+000</rho>
      <alpha>
        1.</alpha>
      <index>
        0</index></_></decision_functions></my_svm>
</opencv_storage>
